Language model created by QuickLM on Fri Jun 22 09:48:54 EDT 2012
Copyright (c) 1996-2010 Carnegie Mellon University and Alexander I. Rudnicky

The model is in standard ARPA format, designed by Doug Paul while he was at MITRE.

The code that was used to produce this language model is available in Open Source.
Please visit http://www.speech.cs.cmu.edu/tools/ for more information

The (fixed) discount mass is 0.5. The backoffs are computed using the ratio method.
This model based on a corpus of 50 sentences and 25 words

\data\
ngram 1=25
ngram 2=49
ngram 3=63

\1-grams:
-1.1655 </s> -0.3010
-1.1655 <s> -0.2703
-2.0864 AC -0.2703
-2.0864 COMPUTER -0.2703
-2.0864 CURRENT -0.2963
-2.2625 DOOR -0.2665
-1.9614 FAN -0.2703
-2.0864 LIGHTS -0.2703
-2.0864 MACHINE -0.2703
-1.7184 ME -0.2890
-2.5635 MOTION -0.2975
-2.0864 MOTOR -0.2703
-1.7184 OF -0.2754
-1.7184 OFF -0.2754
-1.6604 ON -0.2754
-1.1655 PLEASE -0.2703
-2.2625 PLUG -0.2703
-2.0864 READING -0.2703
-2.0864 SENSOR -0.2975
-1.7184 STATUS -0.2926
-1.5635 TELL -0.2804
-2.5635 TEMPERATURE -0.2975
-1.5635 THE -0.2890
-1.3874 TURN -0.2829
-2.0864 WASHING -0.2975

\2-grams:
-0.3010 <s> PLEASE 0.0000
-0.3010 AC </s> -0.3010
-0.3010 COMPUTER </s> -0.3010
-0.7782 CURRENT DOOR -0.1761
-0.7782 CURRENT MOTION 0.0000
-0.7782 CURRENT TEMPERATURE 0.0000
-0.6021 DOOR </s> -0.3010
-0.6021 DOOR SENSOR 0.0000
-0.3010 FAN </s> -0.3010
-0.3010 LIGHTS </s> -0.3010
-0.3010 MACHINE </s> -0.3010
-0.3010 ME THE -0.1139
-0.3010 MOTION SENSOR 0.0000
-0.3010 MOTOR </s> -0.3010
-1.1461 OF AC 0.0000
-1.1461 OF COMPUTER 0.0000
-1.1461 OF DOOR -0.1761
-1.1461 OF FAN 0.0000
-1.1461 OF LIGHTS 0.0000
-1.1461 OF MOTOR 0.0000
-1.1461 OF WASHING 0.0000
-1.1461 OFF AC 0.0000
-1.1461 OFF COMPUTER 0.0000
-1.1461 OFF FAN 0.0000
-1.1461 OFF LIGHTS 0.0000
-1.1461 OFF MOTOR 0.0000
-1.1461 OFF PLUG 0.0000
-1.1461 OFF WASHING 0.0000
-1.2041 ON AC 0.0000
-1.2041 ON COMPUTER 0.0000
-0.9031 ON FAN 0.0000
-1.2041 ON LIGHTS 0.0000
-1.2041 ON MOTOR 0.0000
-1.2041 ON PLUG 0.0000
-1.2041 ON WASHING 0.0000
-0.6990 PLEASE TELL 0.0000
-0.5229 PLEASE TURN 0.0000
-0.3010 PLUG </s> -0.3010
-0.3010 READING </s> -0.3010
-0.3010 SENSOR READING 0.0000
-0.3010 STATUS OF -0.0000
-0.4559 TELL ME 0.0000
-0.8239 TELL THE -0.2304
-0.3010 TEMPERATURE SENSOR 0.0000
-0.8239 THE CURRENT 0.0000
-0.4559 THE STATUS 0.0000
-0.6320 TURN OFF -0.0000
-0.5740 TURN ON 0.0000
-0.3010 WASHING MACHINE 0.0000

\3-grams:
-0.6990 <s> PLEASE TELL
-0.5229 <s> PLEASE TURN
-0.3010 CURRENT DOOR SENSOR
-0.3010 CURRENT MOTION SENSOR
-0.3010 CURRENT TEMPERATURE SENSOR
-0.3010 DOOR SENSOR READING
-0.3010 ME THE STATUS
-0.3010 MOTION SENSOR READING
-0.3010 OF AC </s>
-0.3010 OF COMPUTER </s>
-0.3010 OF DOOR </s>
-0.3010 OF FAN </s>
-0.3010 OF LIGHTS </s>
-0.3010 OF MOTOR </s>
-0.3010 OF WASHING MACHINE
-0.3010 OFF AC </s>
-0.3010 OFF COMPUTER </s>
-0.3010 OFF FAN </s>
-0.3010 OFF LIGHTS </s>
-0.3010 OFF MOTOR </s>
-0.3010 OFF PLUG </s>
-0.3010 OFF WASHING MACHINE
-0.3010 ON AC </s>
-0.3010 ON COMPUTER </s>
-0.3010 ON FAN </s>
-0.3010 ON LIGHTS </s>
-0.3010 ON MOTOR </s>
-0.3010 ON PLUG </s>
-0.3010 ON WASHING MACHINE
-0.4559 PLEASE TELL ME
-0.8239 PLEASE TELL THE
-0.6320 PLEASE TURN OFF
-0.5740 PLEASE TURN ON
-0.3010 SENSOR READING </s>
-1.1461 STATUS OF AC
-1.1461 STATUS OF COMPUTER
-1.1461 STATUS OF DOOR
-1.1461 STATUS OF FAN
-1.1461 STATUS OF LIGHTS
-1.1461 STATUS OF MOTOR
-1.1461 STATUS OF WASHING
-0.3010 TELL ME THE
-0.3010 TELL THE CURRENT
-0.3010 TEMPERATURE SENSOR READING
-0.7782 THE CURRENT DOOR
-0.7782 THE CURRENT MOTION
-0.7782 THE CURRENT TEMPERATURE
-0.3010 THE STATUS OF
-1.1461 TURN OFF AC
-1.1461 TURN OFF COMPUTER
-1.1461 TURN OFF FAN
-1.1461 TURN OFF LIGHTS
-1.1461 TURN OFF MOTOR
-1.1461 TURN OFF PLUG
-1.1461 TURN OFF WASHING
-1.2041 TURN ON AC
-1.2041 TURN ON COMPUTER
-0.9031 TURN ON FAN
-1.2041 TURN ON LIGHTS
-1.2041 TURN ON MOTOR
-1.2041 TURN ON PLUG
-1.2041 TURN ON WASHING
-0.3010 WASHING MACHINE </s>

\end\
